digraph Tree {
node [shape=box] ;
0 [label="X[2] <= -0.728\nentropy = 1.581\nsamples = 105\nvalue = [35, 38, 32]"] ;
1 [label="entropy = 0.0\nsamples = 35\nvalue = [35, 0, 0]"] ;
0 -> 1 [labeldistance=2.5, labelangle=45, headlabel="True"] ;
2 [label="X[3] <= 0.674\nentropy = 0.995\nsamples = 70\nvalue = [0, 38, 32]"] ;
0 -> 2 [labeldistance=2.5, labelangle=-45, headlabel="False"] ;
3 [label="X[2] <= 0.726\nentropy = 0.384\nsamples = 40\nvalue = [0, 37, 3]"] ;
2 -> 3 ;
4 [label="entropy = 0.0\nsamples = 36\nvalue = [0, 36, 0]"] ;
3 -> 4 ;
5 [label="entropy = 0.811\nsamples = 4\nvalue = [0, 1, 3]"] ;
3 -> 5 ;
6 [label="X[2] <= 0.667\nentropy = 0.211\nsamples = 30\nvalue = [0, 1, 29]"] ;
2 -> 6 ;
7 [label="entropy = 0.811\nsamples = 4\nvalue = [0, 1, 3]"] ;
6 -> 7 ;
8 [label="entropy = 0.0\nsamples = 26\nvalue = [0, 0, 26]"] ;
6 -> 8 ;
}