digraph Tree {
node [shape=box, style="filled, rounded", color="black", fontname=helvetica] ;
edge [fontname=helvetica] ;
0 [label="X[3] <= 0.5\nmse = 24.0\nsamples = 17\nvalue = 8.0", fillcolor="#f2c09c"] ;
1 [label="X[4] <= 0.5\nmse = 17.333\nsamples = 9\nvalue = 5.0", fillcolor="#f7d8c1"] ;
0 -> 1 [labeldistance=2.5, labelangle=45, headlabel="True"] ;
2 [label="X[0] <= 1.5\nmse = 2.0\nsamples = 5\nvalue = 2.0", fillcolor="#fcefe6"] ;
1 -> 2 ;
3 [label="X[2] <= 0.5\nmse = 1.25\nsamples = 4\nvalue = 1.5", fillcolor="#fdf3ec"] ;
2 -> 3 ;
4 [label="X[0] <= 0.5\nmse = 1.0\nsamples = 2\nvalue = 1.0", fillcolor="#fdf7f3"] ;
3 -> 4 ;
5 [label="mse = 0.0\nsamples = 1\nvalue = 0.0", fillcolor="#ffffff"] ;
4 -> 5 ;
6 [label="mse = 0.0\nsamples = 1\nvalue = 2.0", fillcolor="#fcefe6"] ;
4 -> 6 ;
7 [label="X[0] <= 0.5\nmse = 1.0\nsamples = 2\nvalue = 2.0", fillcolor="#fcefe6"] ;
3 -> 7 ;
8 [label="mse = 0.0\nsamples = 1\nvalue = 3.0", fillcolor="#fae7da"] ;
7 -> 8 ;
9 [label="mse = 0.0\nsamples = 1\nvalue = 1.0", fillcolor="#fdf7f3"] ;
7 -> 9 ;
10 [label="mse = 0.0\nsamples = 1\nvalue = 4.0", fillcolor="#f8e0ce"] ;
2 -> 10 ;
11 [label="X[0] <= 0.5\nmse = 11.188\nsamples = 4\nvalue = 8.75", fillcolor="#f1ba93"] ;
1 -> 11 ;
12 [label="X[4] <= 1.5\nmse = 4.0\nsamples = 2\nvalue = 7.0", fillcolor="#f4c8a8"] ;
11 -> 12 ;
13 [label="mse = 0.0\nsamples = 1\nvalue = 5.0", fillcolor="#f7d8c1"] ;
12 -> 13 ;
14 [label="mse = 0.0\nsamples = 1\nvalue = 9.0", fillcolor="#f0b890"] ;
12 -> 14 ;
15 [label="X[5] <= 0.5\nmse = 12.25\nsamples = 2\nvalue = 10.5", fillcolor="#eeac7d"] ;
11 -> 15 ;
16 [label="mse = 0.0\nsamples = 1\nvalue = 7.0", fillcolor="#f4c8a8"] ;
15 -> 16 ;
17 [label="mse = 0.0\nsamples = 1\nvalue = 14.0", fillcolor="#e89152"] ;
15 -> 17 ;
18 [label="X[1] <= 0.5\nmse = 9.984\nsamples = 8\nvalue = 11.375", fillcolor="#eda572"] ;
0 -> 18 [labeldistance=2.5, labelangle=-45, headlabel="False"] ;
19 [label="X[5] <= 0.5\nmse = 4.667\nsamples = 3\nvalue = 14.0", fillcolor="#e89152"] ;
18 -> 19 ;
20 [label="X[4] <= 1.5\nmse = 0.25\nsamples = 2\nvalue = 15.5", fillcolor="#e6853f"] ;
19 -> 20 ;
21 [label="mse = 0.0\nsamples = 1\nvalue = 16.0", fillcolor="#e58139"] ;
20 -> 21 ;
22 [label="mse = 0.0\nsamples = 1\nvalue = 15.0", fillcolor="#e78945"] ;
20 -> 22 ;
23 [label="mse = 0.0\nsamples = 1\nvalue = 11.0", fillcolor="#eda877"] ;
19 -> 23 ;
24 [label="X[4] <= 0.5\nmse = 6.56\nsamples = 5\nvalue = 9.8", fillcolor="#efb286"] ;
18 -> 24 ;
25 [label="X[0] <= 1.0\nmse = 0.25\nsamples = 2\nvalue = 12.5", fillcolor="#eb9d64"] ;
24 -> 25 ;
26 [label="mse = 0.0\nsamples = 1\nvalue = 12.0", fillcolor="#eca06a"] ;
25 -> 26 ;
27 [label="mse = 0.0\nsamples = 1\nvalue = 13.0", fillcolor="#ea995e"] ;
25 -> 27 ;
28 [label="X[4] <= 1.5\nmse = 2.667\nsamples = 3\nvalue = 8.0", fillcolor="#f2c09c"] ;
24 -> 28 ;
29 [label="X[5] <= 0.5\nmse = 1.0\nsamples = 2\nvalue = 7.0", fillcolor="#f4c8a8"] ;
28 -> 29 ;
30 [label="mse = 0.0\nsamples = 1\nvalue = 8.0", fillcolor="#f2c09c"] ;
29 -> 30 ;
31 [label="mse = 0.0\nsamples = 1\nvalue = 6.0", fillcolor="#f5d0b5"] ;
29 -> 31 ;
32 [label="mse = 0.0\nsamples = 1\nvalue = 10.0", fillcolor="#efb083"] ;
28 -> 32 ;
}